{
  "framework": "pytorch",
  "dataset": "uci-heart-disease-cleveland",
  "feature_order": [
    "age",
    "sex",
    "cp",
    "trestbps",
    "chol",
    "fbs",
    "restecg",
    "thalach",
    "exang",
    "oldpeak",
    "slope",
    "ca",
    "thal"
  ],
  "scaler": {
    "mean": [
      54.34836196899414,
      0.6639344096183777,
      3.180327892303467,
      131.47540283203125,
      248.45082092285156,
      0.15573769807815552,
      0.9918032884597778,
      149.807373046875,
      0.3237704932689667,
      1.0045082569122314,
      1.5901639461517334,
      0.6639344096183777,
      4.639344215393066
    ],
    "std": [
      8.934504508972168,
      0.47236162424087524,
      0.9366525411605835,
      17.58688735961914,
      53.295509338378906,
      0.3626064956188202,
      0.991735577583313,
      22.734203338623047,
      0.4679136276245117,
      1.0987045764923096,
      0.6040043234825134,
      0.9242689609527588,
      1.916561245918274
    ]
  },
  "layers": [
    {
      "weights": [
        [
          -0.16508318483829498,
          0.14002393186092377,
          0.03722987323999405,
          0.5469109416007996,
          -0.10692138969898224,
          0.1274213343858719,
          -0.10967572033405304,
          0.5633812546730042,
          0.3454967737197876,
          0.37624940276145935,
          0.5676271915435791,
          0.3132482171058655,
          0.49639415740966797
        ],
        [
          -0.3125024437904358,
          -0.07325650751590729,
          -0.29386231303215027,
          0.9154672026634216,
          -0.5007357597351074,
          0.03926427662372589,
          0.16867762804031372,
          -0.027334297075867653,
          -0.35467278957366943,
          0.04602332040667534,
          0.11621495336294174,
          -0.5898348689079285,
          -0.4310488998889923
        ],
        [
          -0.36935725808143616,
          -0.6348137855529785,
          -0.40123510360717773,
          0.026660878211259842,
          0.9231734871864319,
          -0.9679617881774902,
          -0.056908488273620605,
          -0.4062957167625427,
          0.17753690481185913,
          0.6041125655174255,
          0.6684738397598267,
          0.6284061670303345,
          -0.7181540727615356
        ],
        [
          -0.7343767881393433,
          -0.08260151743888855,
          -0.32785564661026,
          0.2666224241256714,
          0.6171359419822693,
          0.06034183129668236,
          -0.23501883447170258,
          0.6129900813102722,
          0.42048180103302,
          0.6511499285697937,
          -0.07747534662485123,
          -0.28476372361183167,
          -0.49522843956947327
        ],
        [
          -0.393350213766098,
          0.4721492826938629,
          0.23121820390224457,
          0.8013013601303101,
          0.2809115946292877,
          -0.2032431811094284,
          0.2556779086589813,
          -0.7002652287483215,
          -0.3893264830112457,
          -0.23685167729854584,
          -0.09260508418083191,
          0.03417746722698212,
          0.3847583830356598
        ],
        [
          -0.2500479519367218,
          -0.11799872666597366,
          -0.13184630870819092,
          0.21725986897945404,
          -0.8789081573486328,
          0.7273661494255066,
          -0.03295040875673294,
          0.2586705982685089,
          -0.2410503327846527,
          -0.23426145315170288,
          -0.19853346049785614,
          -0.7038960456848145,
          -0.0023660766892135143
        ],
        [
          -0.533560037612915,
          0.8239649534225464,
          0.2847883701324463,
          -0.2515900433063507,
          0.7076842784881592,
          -0.018135149031877518,
          0.6581913828849792,
          0.15323497354984283,
          0.2743889093399048,
          0.5499395132064819,
          -0.642368733882904,
          0.3785446882247925,
          0.38798990845680237
        ],
        [
          -0.6057482361793518,
          0.04394801706075668,
          0.054572343826293945,
          -0.10901304334402084,
          -0.581935465335846,
          0.6990639567375183,
          -0.29437255859375,
          0.10032813996076584,
          -0.17239516973495483,
          -0.2612665891647339,
          0.1619487851858139,
          -0.5097315907478333,
          -0.29625341296195984
        ],
        [
          -0.04571455717086792,
          -0.39061129093170166,
          -0.2905365824699402,
          -0.16469469666481018,
          -0.8416483402252197,
          0.127407968044281,
          0.5367462038993835,
          -0.31462550163269043,
          0.2659275531768799,
          0.18845868110656738,
          -0.6021258234977722,
          -0.5542477369308472,
          0.10614752024412155
        ],
        [
          -0.716529369354248,
          0.772452175617218,
          -0.4533131718635559,
          0.03187258541584015,
          0.3674545884132385,
          -0.8198758363723755,
          -0.37169885635375977,
          -0.45167624950408936,
          -0.43185192346572876,
          0.11429619789123535,
          -0.4630948603153229,
          0.15930314362049103,
          -0.26228973269462585
        ],
        [
          0.4112218916416168,
          0.1653650999069214,
          -0.9734620451927185,
          0.189078688621521,
          -0.9244228601455688,
          0.19060222804546356,
          -0.7767511606216431,
          0.33358898758888245,
          -0.319993793964386,
          0.33737707138061523,
          0.3259667158126831,
          -0.7426384091377258,
          0.5778796076774597
        ],
        [
          -0.8136481642723083,
          -0.570855438709259,
          -0.20094513893127441,
          0.06571376323699951,
          0.5139331221580505,
          0.2123216837644577,
          -0.9968365430831909,
          0.225694477558136,
          -0.3604465126991272,
          -0.14920836687088013,
          -0.484316885471344,
          0.6411260962486267,
          -0.3641892373561859
        ],
        [
          -0.25621119141578674,
          0.06667713075876236,
          0.28931427001953125,
          -0.038970429450273514,
          -0.02461865544319153,
          0.7524449825286865,
          0.41660046577453613,
          -0.0923631340265274,
          0.13937342166900635,
          0.054961200803518295,
          -0.07725801318883896,
          0.5908578038215637,
          0.23106500506401062
        ],
        [
          -0.45248401165008545,
          -0.1207333579659462,
          -0.039024241268634796,
          0.713135838508606,
          -0.07211755961179733,
          -0.025015179067850113,
          -0.11432889103889465,
          -0.10177803039550781,
          0.059170689433813095,
          0.7820022702217102,
          0.15628507733345032,
          0.17382800579071045,
          0.7156765460968018
        ],
        [
          -0.09718681871891022,
          -0.2935689091682434,
          0.30648118257522583,
          0.2627619504928589,
          -0.642034113407135,
          -0.09503544121980667,
          -0.20360271632671356,
          0.5224419236183167,
          0.27813300490379333,
          0.42185690999031067,
          0.5875645875930786,
          0.3403446078300476,
          0.16765908896923065
        ],
        [
          -0.7125529646873474,
          0.1243886724114418,
          -0.16143056750297546,
          -0.06728135049343109,
          -0.326522558927536,
          -0.6539371013641357,
          -0.013858773745596409,
          0.8111277222633362,
          0.6235679388046265,
          0.008633318357169628,
          -0.5201879739761353,
          -0.6537340879440308,
          -0.030391301959753036
        ],
        [
          -0.8072357773780823,
          0.05811699107289314,
          -0.0093859126791358,
          0.6973609924316406,
          -0.5922120213508606,
          -0.42128702998161316,
          -0.46564969420433044,
          0.4130617380142212,
          -0.21247978508472443,
          -0.21067878603935242,
          0.23511500656604767,
          -0.7832933664321899,
          -0.1588970571756363
        ],
        [
          0.0695495530962944,
          -0.004763432778418064,
          0.12897467613220215,
          -0.6878464221954346,
          -0.08351367712020874,
          0.07705654203891754,
          0.7790341377258301,
          0.05335566774010658,
          -0.36776643991470337,
          0.19274431467056274,
          0.5565590858459473,
          0.43050169944763184,
          0.4492240250110626
        ],
        [
          -0.17490877211093903,
          -0.18670199811458588,
          0.1488502472639084,
          -0.40236806869506836,
          -0.73658287525177,
          -0.47337985038757324,
          0.05402971804141998,
          -0.5799455642700195,
          0.3436254560947418,
          -0.19333018362522125,
          0.23960570991039276,
          -0.6328376531600952,
          0.07063590735197067
        ],
        [
          -0.1934950053691864,
          -0.5924994349479675,
          0.1692444384098053,
          -0.3599192500114441,
          -0.9443452954292297,
          0.14639760553836823,
          -0.8284966349601746,
          -0.34819498658180237,
          -0.39914801716804504,
          0.2325647920370102,
          -0.4286559820175171,
          -0.0754958763718605,
          -0.31655752658843994
        ],
        [
          0.8211860060691833,
          -0.6966006755828857,
          -0.13366997241973877,
          0.017956875264644623,
          0.7286496162414551,
          0.430916428565979,
          -0.16990311443805695,
          0.7345536351203918,
          -0.6117223501205444,
          -0.24254301190376282,
          -0.3733968734741211,
          -0.7050462961196899,
          -0.2163587212562561
        ],
        [
          0.35297054052352905,
          0.052039287984371185,
          -0.08114338666200638,
          -0.3800702393054962,
          -0.3972214162349701,
          0.43663492798805237,
          -0.605862557888031,
          0.2106936126947403,
          -0.359619677066803,
          -0.07582839578390121,
          0.091032974421978,
          -0.13023050129413605,
          -0.004903886001557112
        ],
        [
          -0.9256258010864258,
          0.0034765342716127634,
          0.19615250825881958,
          -0.9123937487602234,
          -0.4416850209236145,
          0.12999628484249115,
          -0.3249443769454956,
          0.29910895228385925,
          0.5058884024620056,
          -0.4318321645259857,
          -0.21477271616458893,
          -0.3551199436187744,
          -0.8717896342277527
        ],
        [
          -0.23802496492862701,
          0.5558251738548279,
          -0.07432518899440765,
          -0.4334292411804199,
          -0.4250960350036621,
          -1.1631966829299927,
          0.7115600109100342,
          0.30594292283058167,
          -0.22545458376407623,
          0.2729376554489136,
          0.5518045425415039,
          0.9277341365814209,
          0.24487701058387756
        ],
        [
          -0.4642466902732849,
          0.5026177167892456,
          0.6280426979064941,
          0.10355382412672043,
          -0.08383136242628098,
          0.34244289994239807,
          0.4631783962249756,
          -0.10837408900260925,
          0.12970492243766785,
          0.20148523151874542,
          0.047013066709041595,
          0.55414879322052,
          -0.10826052725315094
        ],
        [
          -0.14158444106578827,
          -0.6239897608757019,
          0.3343636691570282,
          -0.7391446828842163,
          -0.9180256724357605,
          0.07965514808893204,
          0.559323251247406,
          -0.21626296639442444,
          -0.16599048674106598,
          0.4722193479537964,
          -0.6510074138641357,
          0.16117922961711884,
          0.5359045267105103
        ],
        [
          -0.7272483706474304,
          -0.3412817716598511,
          0.06057374179363251,
          0.20694585144519806,
          -0.007859868928790092,
          -0.2707730829715729,
          -0.6394521594047546,
          0.15934742987155914,
          0.597475528717041,
          -0.09558047354221344,
          -0.9643396139144897,
          -0.4696029722690582,
          0.038551073521375656
        ],
        [
          -0.21045474708080292,
          0.09942030161619186,
          0.3683456480503082,
          -0.4838623106479645,
          0.31964078545570374,
          -0.07081449776887894,
          -0.11466236412525177,
          0.05919535830616951,
          0.17579112946987152,
          -0.10771987587213516,
          0.10561203956604004,
          -0.3354679048061371,
          -0.19618459045886993
        ],
        [
          0.8259202241897583,
          0.6398972868919373,
          0.4771002531051636,
          -0.039788976311683655,
          -0.6900008320808411,
          -0.11820609867572784,
          0.02973330020904541,
          -0.6127017736434937,
          0.14528845250606537,
          0.08409062027931213,
          -0.2279515415430069,
          -0.15590648353099823,
          0.4677302837371826
        ],
        [
          -0.2145911604166031,
          0.2397177666425705,
          -1.005624771118164,
          0.26391279697418213,
          -0.2701079547405243,
          0.5711959600448608,
          0.2169274240732193,
          0.14779794216156006,
          0.42129066586494446,
          -0.5094916224479675,
          -0.27594494819641113,
          0.10145709663629532,
          0.03317093849182129
        ],
        [
          -0.5325519442558289,
          -0.36804160475730896,
          0.232024148106575,
          0.7002898454666138,
          -0.3669661283493042,
          0.3087288737297058,
          -0.37894418835639954,
          0.26811596751213074,
          0.6428419947624207,
          0.4666711390018463,
          0.061324261128902435,
          0.23957684636116028,
          0.3813389837741852
        ],
        [
          0.10857132077217102,
          -0.3318916857242584,
          -0.7560380101203918,
          -0.11947625875473022,
          -0.5576148629188538,
          0.011555029079318047,
          -0.042514435946941376,
          -0.3755131661891937,
          -0.2698431611061096,
          0.3517845571041107,
          0.3201223611831665,
          -0.09611953049898148,
          -0.3047146797180176
        ]
      ],
      "bias": [
        -0.09546484053134918,
        0.21578478813171387,
        -0.3192978501319885,
        -0.2767280340194702,
        0.017458930611610413,
        -0.36662235856056213,
        0.07069669663906097,
        0.12182889133691788,
        -0.03896306827664375,
        0.24112050235271454,
        -0.16962215304374695,
        -0.4259234368801117,
        -0.07518991827964783,
        -0.09797991067171097,
        0.2269851267337799,
        -0.1754039078950882,
        -0.5430119037628174,
        0.2046380192041397,
        -0.3815034329891205,
        0.6726666688919067,
        -0.31546616554260254,
        -0.016173016279935837,
        -0.101112000644207,
        0.009715069085359573,
        -0.05953560769557953,
        0.18125994503498077,
        0.42047518491744995,
        0.10689416527748108,
        0.4730164408683777,
        -0.11080153286457062,
        -0.010462568141520023,
        0.5932042598724365
      ]
    },
    {
      "weights": [
        [
          -0.14211247861385345,
          0.67733234167099,
          1.0709004402160645,
          0.7982608675956726,
          -1.0491461753845215,
          0.4419529438018799,
          1.2723888158798218,
          0.26608017086982727,
          0.501775860786438,
          -0.0013726726174354553,
          0.8078256249427795,
          0.1781166046857834,
          -0.21520817279815674,
          -0.744688868522644,
          -0.5296791791915894,
          0.6304877996444702,
          0.5823173522949219,
          -0.06391079723834991,
          0.24395322799682617,
          0.04070359468460083,
          0.10011299699544907,
          0.49783089756965637,
          0.19590526819229126,
          -0.9644246101379395,
          0.10675433278083801,
          1.0580943822860718,
          -0.13406473398208618,
          -0.30679234862327576,
          0.22848910093307495,
          0.07215628027915955,
          -0.9725847840309143,
          0.018561657518148422
        ],
        [
          0.40173256397247314,
          -0.5020485520362854,
          0.1924293339252472,
          -0.041565388441085815,
          0.09754830598831177,
          -0.37810513377189636,
          0.11604830622673035,
          0.08838117122650146,
          -0.1435992270708084,
          0.30715566873550415,
          0.24436978995800018,
          -0.6175814867019653,
          0.10322653502225876,
          0.3126680552959442,
          0.26589736342430115,
          -0.20563796162605286,
          -0.35813379287719727,
          0.31427985429763794,
          -0.6615304946899414,
          0.4985802173614502,
          -0.45708227157592773,
          -0.10367558896541595,
          0.5377540588378906,
          0.4704207479953766,
          0.43426141142845154,
          0.006096330471336842,
          0.40873637795448303,
          -0.1675804853439331,
          -0.01192264724522829,
          -0.4701826870441437,
          0.5437136888504028,
          0.3302781283855438
        ],
        [
          0.27873867750167847,
          0.037754688411951065,
          -0.5978781580924988,
          -0.962860107421875,
          0.39288434386253357,
          -0.3614104986190796,
          0.25083303451538086,
          0.14191490411758423,
          -0.5332786440849304,
          1.084601640701294,
          -0.34726405143737793,
          0.079978346824646,
          0.3520413935184479,
          0.11145487427711487,
          0.34807977080345154,
          -0.5547559261322021,
          -0.4134519100189209,
          0.31373971700668335,
          -0.34128251671791077,
          0.20075662434101105,
          1.1321723461151123,
          0.1041899248957634,
          0.43740314245224,
          0.39086535573005676,
          0.11630181968212128,
          -0.27102646231651306,
          0.511306881904602,
          0.0881868526339531,
          -0.24702505767345428,
          0.7442644834518433,
          0.4186740219593048,
          0.6622201800346375
        ],
        [
          0.4029604196548462,
          -0.0648583471775055,
          0.10812269151210785,
          -0.17530502378940582,
          0.23165765404701233,
          -0.5715054273605347,
          0.22781085968017578,
          -0.5088655948638916,
          -0.1950012594461441,
          0.5610126852989197,
          0.07200212776660919,
          -0.9856992959976196,
          0.1714610755443573,
          0.26587456464767456,
          0.3261343836784363,
          -0.36840417981147766,
          -0.35863757133483887,
          0.39640864729881287,
          -0.310279905796051,
          0.47184064984321594,
          -0.5539214611053467,
          -0.234353706240654,
          -0.6124374866485596,
          0.2504924535751343,
          0.08998788148164749,
          0.19410641491413116,
          0.3726111948490143,
          -0.22743695974349976,
          -0.1204376220703125,
          0.2713126242160797,
          0.5633235573768616,
          0.642441987991333
        ],
        [
          0.3578610122203827,
          -0.10075797885656357,
          -0.31853973865509033,
          -0.01910514570772648,
          0.5141107439994812,
          -0.8203787207603455,
          0.2706589698791504,
          0.2793291509151459,
          -0.10911979526281357,
          0.8100663423538208,
          -0.09037940949201584,
          -1.0237957239151,
          0.012198231182992458,
          0.3949751853942871,
          0.4531560242176056,
          -0.32544511556625366,
          -0.8913846611976624,
          0.2065722495317459,
          -0.3612925708293915,
          0.703437864780426,
          -0.5719523429870605,
          0.007657456211745739,
          0.9555490612983704,
          0.5623047947883606,
          0.2923148274421692,
          -0.10640384256839752,
          0.5610211491584778,
          -0.13568775355815887,
          -0.16423940658569336,
          -0.16257771849632263,
          0.6432636976242065,
          0.7547320127487183
        ],
        [
          -0.05912752076983452,
          0.5963594913482666,
          0.8593813180923462,
          0.6411001086235046,
          -0.9498578906059265,
          0.4648899435997009,
          0.9786197543144226,
          0.20715002715587616,
          0.3898487687110901,
          -0.17756813764572144,
          0.7516637444496155,
          0.44289979338645935,
          -0.41428080201148987,
          -0.6553907990455627,
          -0.8074010014533997,
          0.43128839135169983,
          0.4228094220161438,
          -0.039379946887493134,
          0.2991432845592499,
          0.22370262444019318,
          -0.12945356965065002,
          0.2756241261959076,
          0.04411455616354942,
          -0.8305505514144897,
          0.10691528767347336,
          0.6282806396484375,
          0.192523792386055,
          -0.03834613412618637,
          0.060957860201597214,
          0.06060914322733879,
          -0.4679147005081177,
          -0.012245110236108303
        ],
        [
          0.2872863709926605,
          -0.7747397422790527,
          -0.0933980792760849,
          -0.18570297956466675,
          -0.11459729075431824,
          -0.2547817528247833,
          0.4271082580089569,
          0.12133336812257767,
          -0.2615242004394531,
          0.24944540858268738,
          0.22981548309326172,
          -0.7887188196182251,
          0.2172722965478897,
          0.33159321546554565,
          0.323248952627182,
          -0.09353423118591309,
          -0.4273161292076111,
          0.0882972702383995,
          -0.28127506375312805,
          0.6812488436698914,
          -0.8578800559043884,
          -0.0518360435962677,
          0.5240273475646973,
          0.5037999153137207,
          0.45779162645339966,
          -0.2030157744884491,
          0.8710536360740662,
          -0.14308203756809235,
          0.1023799479007721,
          -0.7068954706192017,
          0.5908600091934204,
          0.5409955382347107
        ],
        [
          0.4303186535835266,
          -0.29568392038345337,
          -0.38182809948921204,
          0.0714387521147728,
          0.06137527525424957,
          -0.2076905071735382,
          0.020017454400658607,
          -0.010372888296842575,
          -0.08993189036846161,
          0.2737698554992676,
          0.08207817375659943,
          -0.5703148245811462,
          0.028167476877570152,
          0.4137471914291382,
          0.1262713372707367,
          -0.2523508667945862,
          -0.4358755350112915,
          0.02413504756987095,
          -0.20356404781341553,
          0.6594703197479248,
          -0.5082004070281982,
          0.16949054598808289,
          0.6048314571380615,
          0.4425737261772156,
          0.4311113655567169,
          -0.039549168199300766,
          0.46805915236473083,
          0.04778748378157616,
          -0.09995989501476288,
          -0.25113049149513245,
          0.3838476836681366,
          0.1728428453207016
        ],
        [
          -0.11097833514213562,
          0.3079138398170471,
          0.6083210706710815,
          0.6306273937225342,
          -0.8103909492492676,
          0.30611711740493774,
          0.7532326579093933,
          0.26637986302375793,
          0.4045693278312683,
          -0.1364794671535492,
          0.7273003458976746,
          0.3252405524253845,
          -0.3065032660961151,
          -0.7280808687210083,
          -0.4037003219127655,
          0.3574554920196533,
          0.31041479110717773,
          0.19356198608875275,
          0.3527815341949463,
          0.22472524642944336,
          -0.08319839835166931,
          0.2271074801683426,
          0.21758104860782623,
          -0.7458726763725281,
          0.05867234990000725,
          0.25257280468940735,
          0.33165034651756287,
          -0.204690083861351,
          0.001217641751281917,
          0.20785868167877197,
          -0.25804704427719116,
          0.1586439162492752
        ],
        [
          -0.5743381977081299,
          0.5366663932800293,
          1.4127925634384155,
          1.4972329139709473,
          -0.9810044765472412,
          0.6163425445556641,
          1.227279782295227,
          0.4556872844696045,
          0.5589541792869568,
          -0.3533453643321991,
          1.078306794166565,
          0.403138667345047,
          -0.5534033179283142,
          -0.9245002865791321,
          -0.7185368537902832,
          0.9797415137290955,
          0.6539464592933655,
          -0.12674549221992493,
          0.7319357991218567,
          0.10323178023099899,
          -0.0050645871087908745,
          0.5207379460334778,
          -0.026010973379015923,
          -1.094295620918274,
          0.013580855913460255,
          1.312165379524231,
          0.16553939878940582,
          -0.4122805595397949,
          1.0135409832000732,
          0.215962216258049,
          -0.5242388844490051,
          -0.1761706918478012
        ],
        [
          -0.19394728541374207,
          0.4473641812801361,
          0.7440989017486572,
          0.8217563033103943,
          -0.8882898688316345,
          0.22195002436637878,
          0.7424443364143372,
          0.16026651859283447,
          0.2022799700498581,
          -0.09830158948898315,
          0.7303696274757385,
          0.24096252024173737,
          -0.17258206009864807,
          -0.6250634789466858,
          -0.27916020154953003,
          0.5695504546165466,
          0.3000887632369995,
          -0.08519652485847473,
          0.3775586187839508,
          0.12374965846538544,
          -0.05440754070878029,
          0.3555676341056824,
          0.05423717945814133,
          -0.5637406706809998,
          0.33077314496040344,
          0.43607097864151,
          0.24090971052646637,
          -0.2331123650074005,
          0.07242607325315475,
          -0.047028280794620514,
          -0.2792651653289795,
          0.1278456747531891
        ],
        [
          0.2848767638206482,
          -0.5851839184761047,
          0.2517843544483185,
          -0.023754047229886055,
          0.2346094697713852,
          -0.4634614884853363,
          0.5985597372055054,
          -0.2533269226551056,
          0.06923091411590576,
          0.22531113028526306,
          0.09331978857517242,
          -0.9740970730781555,
          0.2206178605556488,
          0.5220922827720642,
          0.6086450815200806,
          -0.3434459865093231,
          -0.31826967000961304,
          0.5252156853675842,
          -0.016280390322208405,
          0.7421982288360596,
          -0.6225429773330688,
          0.05385474115610123,
          -0.6548844575881958,
          0.5184336304664612,
          0.3016531765460968,
          0.00308622932061553,
          0.6444379687309265,
          -0.2139957696199417,
          -0.08932863175868988,
          -0.5085126757621765,
          0.7387918829917908,
          0.691745400428772
        ],
        [
          0.09099772572517395,
          -0.8363209366798401,
          -0.20053577423095703,
          -0.2187146097421646,
          -0.0766592025756836,
          -0.22809572517871857,
          0.37749966979026794,
          0.13704638183116913,
          -0.20220722258090973,
          0.3501626253128052,
          0.21556255221366882,
          -0.810534656047821,
          0.044853370636701584,
          0.3634306490421295,
          0.3761463165283203,
          -0.36755722761154175,
          -0.46162518858909607,
          0.34546446800231934,
          -0.27988675236701965,
          0.5989006161689758,
          -1.0707106590270996,
          0.20043128728866577,
          0.6901877522468567,
          0.6227204203605652,
          0.6262683272361755,
          -0.037595514208078384,
          1.014031171798706,
          -0.09121028333902359,
          0.08356455713510513,
          -0.8761107325553894,
          0.7757905125617981,
          0.5590389966964722
        ],
        [
          -0.34941670298576355,
          0.46142712235450745,
          0.892120897769928,
          0.8296655416488647,
          -0.9057185053825378,
          0.17441383004188538,
          0.8432685732841492,
          0.3686424791812897,
          0.42627057433128357,
          -0.07089202851057053,
          0.7027848362922668,
          0.21279549598693848,
          -0.18127217888832092,
          -0.4940343201160431,
          -0.3762304186820984,
          0.5400621891021729,
          0.5098558068275452,
          -0.014856431633234024,
          0.3418453335762024,
          0.16539093852043152,
          0.025064826011657715,
          0.3642149567604065,
          0.27356842160224915,
          -0.653028130531311,
          -0.043370891362428665,
          0.6563947796821594,
          0.17875902354717255,
          -0.3387809097766876,
          0.19591213762760162,
          0.045985713601112366,
          -0.3521723449230194,
          0.014187034219503403
        ],
        [
          -0.3522333800792694,
          0.20502781867980957,
          0.8405717015266418,
          0.7472065091133118,
          -0.1247807964682579,
          0.43513014912605286,
          0.9215935468673706,
          0.21158961951732635,
          0.461178183555603,
          -0.3567578196525574,
          0.751683235168457,
          0.3747161030769348,
          -0.13654109835624695,
          -0.26440465450286865,
          -0.6441730856895447,
          0.766339123249054,
          0.5750995874404907,
          -0.01568768173456192,
          0.6767081618309021,
          0.05059463158249855,
          -0.17393121123313904,
          0.27740707993507385,
          0.1425904482603073,
          -0.6960965991020203,
          -0.10884926468133926,
          0.8799484372138977,
          0.11536389589309692,
          0.17028433084487915,
          1.5654655694961548,
          -0.1369686871767044,
          -0.39082932472229004,
          0.04575662314891815
        ],
        [
          0.3249906897544861,
          -0.5617698431015015,
          0.5395554900169373,
          0.007896976545453072,
          -0.07555758208036423,
          -0.47565123438835144,
          0.1716412454843521,
          -0.6075157523155212,
          -0.3833044469356537,
          0.4096950590610504,
          0.3036230802536011,
          -0.9656942486763,
          0.14663900434970856,
          0.4064708650112152,
          0.44920891523361206,
          -0.6171303391456604,
          -0.6873886585235596,
          0.6250935196876526,
          -0.6186007261276245,
          0.5645837187767029,
          -0.8631294369697571,
          0.050685983151197433,
          -0.9669819474220276,
          0.5878083109855652,
          0.554979145526886,
          0.4842361807823181,
          0.8645796775817871,
          -0.30453622341156006,
          0.208371102809906,
          -0.5485247373580933,
          0.819007933139801,
          0.7063993811607361
        ]
      ],
      "bias": [
        -0.2839389741420746,
        0.11769086867570877,
        0.2808793783187866,
        0.09520962089300156,
        0.09865139424800873,
        0.15024051070213318,
        0.1369689702987671,
        -0.006080568768084049,
        0.061531081795692444,
        -0.12189843505620956,
        0.025624865666031837,
        0.1181374341249466,
        0.11401181668043137,
        -0.18532976508140564,
        0.2314583659172058,
        0.1744801104068756
      ]
    },
    {
      "weights": [
        [
          -0.9078847765922546,
          0.5697529911994934,
          0.9175125360488892,
          0.7365214228630066,
          0.7385438084602356,
          -0.573107898235321,
          0.6808302998542786,
          0.5477340221405029,
          -0.6432978510856628,
          -0.9104573130607605,
          -0.6151335835456848,
          0.5148057341575623,
          0.7268897891044617,
          -0.510509192943573,
          -0.48971229791641235,
          1.1757042407989502
        ]
      ],
      "bias": [
        0.08122296631336212
      ]
    }
  ],
  "metrics": {
    "train_accuracy": 1.0,
    "test_accuracy": 0.7796609997749329,
    "test_loss": 3.2426891326904297,
    "train_size": 244,
    "test_size": 59,
    "epochs": 300
  },
  "genetic_algorithm": {
    "population_size": 12,
    "generations": 8,
    "best_fitness": 0.9199,
    "subset_test_accuracy": 0.9153,
    "selected_indices": [
      0,
      1,
      2,
      3,
      5,
      6,
      7,
      9,
      11,
      12
    ],
    "selected_features": [
      "age",
      "sex",
      "cp",
      "trestbps",
      "fbs",
      "restecg",
      "thalach",
      "oldpeak",
      "ca",
      "thal"
    ],
    "history": [
      {
        "generation": 1,
        "best_fitness": 0.889,
        "best_accuracy": 0.8814,
        "feature_count": 8
      },
      {
        "generation": 2,
        "best_fitness": 0.9199,
        "best_accuracy": 0.9153,
        "feature_count": 10
      },
      {
        "generation": 3,
        "best_fitness": 0.9199,
        "best_accuracy": 0.9153,
        "feature_count": 10
      },
      {
        "generation": 4,
        "best_fitness": 0.9199,
        "best_accuracy": 0.9153,
        "feature_count": 10
      },
      {
        "generation": 5,
        "best_fitness": 0.9199,
        "best_accuracy": 0.9153,
        "feature_count": 10
      },
      {
        "generation": 6,
        "best_fitness": 0.9199,
        "best_accuracy": 0.9153,
        "feature_count": 10
      },
      {
        "generation": 7,
        "best_fitness": 0.9199,
        "best_accuracy": 0.9153,
        "feature_count": 10
      },
      {
        "generation": 8,
        "best_fitness": 0.9199,
        "best_accuracy": 0.9153,
        "feature_count": 10
      }
    ]
  }
}